{"biases":[[[3.152227421205384],[3.8525639430048306],[-4.1456165751071765],[-4.022997439352875],[3.371513010643464],[3.8299411074342076],[-4.082594056958017],[3.47030208095735],[2.5736147883267146],[-2.876276846383889]],[[-0.03551758544000403],[-0.49384984001283866],[-0.40865507471315315],[-0.06749822745021393],[-0.3743158469831958],[-0.3798744500088612],[0.5585173379673318],[-0.4894299370042832],[-0.5302745924662443],[0.765074090307263]],[[-0.4032581825028104]]],"weights":[[[-6.913956514229046,-6.915202511093671],[-8.295694900712732,-8.293127230773248],[8.876215664418046,8.874837267010061],[8.631874657484344,8.63220029454621],[-7.3463275064583495,-7.343573983023133],[-8.249474359461951,-8.249789711065185],[8.750088500286974,8.750538641277119],[-7.540715352213481,-7.537965656861123],[-5.788632506707327,-5.7956147245691705],[6.359258298302872,6.39358714568879]],[[-0.6194802959398968,-1.5445513446491712,0.7467266766344932,2.0162325744399734,-1.4111419575700639,-0.3342223014762609,2.1499504765979323,-1.5610355804112457,0.12673811082645262,0.3981536427889838],[-1.0883039785293078,-1.1135072673019792,0.6200224248495593,1.4447301737791596,-0.7247389691764166,-1.3501370746446546,1.9492536205124864,-0.10292099691614559,0.12589335202296864,1.204213934739379],[-0.15388461131046952,1.4164399451977772,-1.793681689051757,-1.6033849236204787,1.6525192868276584,1.657919692577816,-0.6238821112958888,0.9517213261969653,0.7953183222675101,-1.2372312198110071],[-0.2258437904982218,1.1047475818750032,-2.350401561701929,-0.7226929755288275,1.3068922014231756,0.92850389066895,-0.8685248844972732,1.4809717754460585,0.3258938971967631,-0.8160882436944706],[-1.2085385600531398,-1.687658707290185,2.3020206796359104,1.4459279612641185,-1.2073295182673898,-1.1294852873330734,2.1524577344387215,-0.2875214632783739,-0.8117899269806075,0.7303841764636243],[1.2137060724852933,0.5547651145628191,-1.5586806577955195,-1.865930281230526,0.3210988045282016,1.75090004505014,-2.0713490487678348,1.5168755404996743,1.1745832514875818,0.017493587103039686],[-1.1377643501193886,-1.2583895160561838,1.4802394116231312,0.9880541128207805,-0.22287622130421147,-1.701815308708205,1.1697269888688795,-1.417961341067714,0.2599320145474181,0.6918415514916774],[-1.331809447564778,-0.8405281700080238,0.8961126735179116,1.8384720930334442,0.2608731899038436,-1.0535386704158392,0.6008263590527338,-0.5885669774919342,-0.03360314140680472,1.2404196001168315],[0.6563283892946367,1.6560736919280652,-1.5754027904227528,-1.1908893257427597,0.13472801644912852,1.204783278492026,-1.1653895202619862,0.4413374881857962,0.7917633405382055,0.07798098992665796],[0.2159904344993599,-0.9950208603634535,1.6447935326116285,-0.26708630484943074,-0.1866073451988892,0.47790317802192694,0.5626659222334724,-0.19039015003151838,0.4392040750618886,-0.09923683829633455]],[[1.2533053156028748,0.8519923035793934,-1.488915829636803,-0.9365429004067156,2.042679916053038,-1.6751791071885433,0.9867044034344525,0.561428621483457,-0.6958653180502232,0.16517169428677697]]]}